<?xml version="1.0"?>
<opencv_storage>
<stage8>
  <maxWeakCount>34</maxWeakCount>
  <stageThreshold>-1.2032163143157959e+00</stageThreshold>
  <weakClassifiers>
    <_>
      <internalNodes>
        0 -1 58016 6.1727687716484070e-02</internalNodes>
      <leafValues>
        -2.6191383600234985e-01 5.2998381853103638e-01</leafValues></_>
    <_>
      <internalNodes>
        0 -1 58016 -5.9141002595424652e-02</internalNodes>
      <leafValues>
        5.7111978530883789e-01 -1.3710951805114746e-01</leafValues></_>
    <_>
      <internalNodes>
        0 -1 5059 6.9944962859153748e-02</internalNodes>
      <leafValues>
        -1.1028016358613968e-01 5.6044512987136841e-01</leafValues></_>
    <_>
      <internalNodes>
        0 -1 31635 -7.2078760713338852e-03</internalNodes>
      <leafValues>
        3.5743102431297302e-01 -2.9717493057250977e-01</leafValues></_>
    <_>
      <internalNodes>
        0 -1 31637 1.9405214115977287e-02</internalNodes>
      <leafValues>
        -6.9081738591194153e-02 5.1380336284637451e-01</leafValues></_>
    <_>
      <internalNodes>
        0 -1 60584 -1.5631519258022308e-02</internalNodes>
      <leafValues>
        3.6800676584243774e-01 -1.6804121434688568e-01</leafValues></_>
    <_>
      <internalNodes>
        0 -1 64579 1.4033895917236805e-02</internalNodes>
      <leafValues>
        -5.5567849427461624e-02 5.4249674081802368e-01</leafValues></_>
    <_>
      <internalNodes>
        0 -1 68896 -8.2350879907608032e-02</internalNodes>
      <leafValues>
        4.2751967906951904e-01 -1.1863067746162415e-01</leafValues></_>
    <_>
      <internalNodes>
        0 -1 75675 4.8427348956465721e-03</internalNodes>
      <leafValues>
        8.2356281578540802e-02 -4.5845663547515869e-01</leafValues></_>
    <_>
      <internalNodes>
        0 -1 62077 1.0982494801282883e-02</internalNodes>
      <leafValues>
        -9.1304965317249298e-02 3.9031413197517395e-01</leafValues></_>
    <_>
      <internalNodes>
        0 -1 62101 1.7686225473880768e-02</internalNodes>
      <leafValues>
        -1.1349678784608841e-01 4.9474310874938965e-01</leafValues></_>
    <_>
      <internalNodes>
        0 -1 38203 -7.9983789473772049e-03</internalNodes>
      <leafValues>
        -6.1872035264968872e-01 8.1669442355632782e-02</leafValues></_>
    <_>
      <internalNodes>
        0 -1 53218 -7.3304329998791218e-03</internalNodes>
      <leafValues>
        3.0797070264816284e-01 -1.2733010947704315e-01</leafValues></_>
    <_>
      <internalNodes>
        0 -1 31229 -1.7191037535667419e-02</internalNodes>
      <leafValues>
        4.7363168001174927e-01 -9.3479938805103302e-02</leafValues></_>
    <_>
      <internalNodes>
        0 -1 6697 6.1487052589654922e-03</internalNodes>
      <leafValues>
        6.6630654036998749e-02 -5.8295756578445435e-01</leafValues></_>
    <_>
      <internalNodes>
        0 -1 36036 7.9573299735784531e-03</internalNodes>
      <leafValues>
        -1.1297024786472321e-01 3.2900106906890869e-01</leafValues></_>
    <_>
      <internalNodes>
        0 -1 27910 -3.2981352414935827e-03</internalNodes>
      <leafValues>
        -5.2604937553405762e-01 7.8759096562862396e-02</leafValues></_>
    <_>
      <internalNodes>
        0 -1 46708 1.6204699873924255e-02</internalNodes>
      <leafValues>
        6.8271301686763763e-02 -4.8088419437408447e-01</leafValues></_>
    <_>
      <internalNodes>
        0 -1 43407 7.6209425926208496e-02</internalNodes>
      <leafValues>
        5.4214466363191605e-02 -6.3220739364624023e-01</leafValues></_>
    <_>
      <internalNodes>
        0 -1 63408 -5.7951182126998901e-02</internalNodes>
      <leafValues>
        -7.3634916543960571e-01 4.6210907399654388e-02</leafValues></_>
    <_>
      <internalNodes>
        0 -1 48749 -4.1368789970874786e-03</internalNodes>
      <leafValues>
        -6.3015753030776978e-01 4.6336155384778976e-02</leafValues></_>
    <_>
      <internalNodes>
        0 -1 54359 7.5265513733029366e-03</internalNodes>
      <leafValues>
        -7.6629646122455597e-02 4.6783646941184998e-01</leafValues></_>
    <_>
      <internalNodes>
        0 -1 41386 1.3149505481123924e-02</internalNodes>
      <leafValues>
        -7.1972966194152832e-02 4.7984123229980469e-01</leafValues></_>
    <_>
      <internalNodes>
        0 -1 46488 -5.1991897635161877e-03</internalNodes>
      <leafValues>
        -7.1831434965133667e-01 5.0334721803665161e-02</leafValues></_>
    <_>
      <internalNodes>
        0 -1 41749 -5.7458826340734959e-03</internalNodes>
      <leafValues>
        -7.2838455438613892e-01 4.1779123246669769e-02</leafValues></_>
    <_>
      <internalNodes>
        0 -1 24709 2.6880126446485519e-02</internalNodes>
      <leafValues>
        8.2112997770309448e-02 -4.0390864014625549e-01</leafValues></_>
    <_>
      <internalNodes>
        0 -1 52538 7.3243215680122375e-02</internalNodes>
      <leafValues>
        7.0572309195995331e-02 -4.9267330765724182e-01</leafValues></_>
    <_>
      <internalNodes>
        0 -1 30303 6.0722958296537399e-03</internalNodes>
      <leafValues>
        -9.4855614006519318e-02 4.2525532841682434e-01</leafValues></_>
    <_>
      <internalNodes>
        0 -1 47921 -2.0476458594202995e-03</internalNodes>
      <leafValues>
        -5.0921469926834106e-01 8.9735202491283417e-02</leafValues></_>
    <_>
      <internalNodes>
        0 -1 68302 -2.7534548193216324e-02</internalNodes>
      <leafValues>
        -5.9665936231613159e-01 4.6209696680307388e-02</leafValues></_>
    <_>
      <internalNodes>
        0 -1 58365 7.1358839049935341e-03</internalNodes>
      <leafValues>
        -8.4369942545890808e-02 4.6801704168319702e-01</leafValues></_>
    <_>
      <internalNodes>
        0 -1 42217 -1.9449558109045029e-02</internalNodes>
      <leafValues>
        4.5495554804801941e-01 -6.9014929234981537e-02</leafValues></_>
    <_>
      <internalNodes>
        0 -1 43226 -8.2656863378360868e-04</internalNodes>
      <leafValues>
        -3.1778806447982788e-01 1.1903738975524902e-01</leafValues></_>
    <_>
      <internalNodes>
        0 -1 62369 -2.2379742003977299e-03</internalNodes>
      <leafValues>
        -5.3335106372833252e-01 6.0797270387411118e-02</leafValues></_></weakClassifiers></stage8>
</opencv_storage>
